function [y1] = N_ANN_hitter_1113(x1)
%MYNEURALNETWORKFUNCTION neural network simulation function.
%
% Generated by Neural Network Toolbox function genFunction, 13-Nov-2015 11:02:34.
%
% [y1] = myNeuralNetworkFunction(x1) takes these arguments:
%   x = Qx14 matrix, input #1
% and returns:
%   y = Qx1 matrix, output #1
% where Q is the number of samples.

%#ok<*RPMT0>

% ===== NEURAL NETWORK CONSTANTS =====

% Input 1
x1_step1_xoffset = [0.00705679224696969;0.0116576417888039;0;0;0.00837024045388494;0;0;0;0;0.0458651124217811;0;0.0141200995122522;0.040349733003634;0.000400499394119368];
x1_step1_gain = [12.322386531426;27.9509957959212;13.8973710958666;13.9504702953104;24.4851981965832;15.4410512528602;9.49741093119946;12.3459761771949;10.9786725062732;54.9342304208313;13.5344618038159;17.9797147456233;43.8644776562309;9.0466763720427];
x1_step1_ymin = -1;

% Layer 1
b1 = [-0.15832644347482194291;3.1225102059170066759;-0.58773546683759259057;-2.7369751195952072287;1.0727684180357990318;-0.71647901793736745724;-1.8993879392096568726;2.518225953298659725;5.7975591475087178139;1.2331839665151929086];
IW1_1 = [2.3483347713611402163 0.083920366899460141497 0.48727601599531955578 -0.029570709639016617976 0.97948397849755441946 0.77303692771511522963 -0.16081731854295430728 0.18290471311297393231 0.37118937613255859054 -1.4971326528287116631 -0.51049410944915762922 -0.063285511847287048703 -0.80813474734370260855 -1.5420633862083321652;2.3125496489651173881 -2.0103751363174606759 2.2604491811100668741 -0.76659865960755280145 -0.75135912755549039144 -2.171710490539817684 1.1435089389857238107 4.1424681325507988205 0.57625913923300609021 -5.3952070002977317031 1.7153586324550336162 1.1472161633684634374 -2.4183745509101015614 0.083166334477035475103;-0.44827835253200304377 1.4571796248051025469 -0.21556331217163254843 0.81001003646051761287 0.76006296694278263626 1.3954910709581054284 -1.5276660791806440098 0.43390089913651674891 7.2658228362780485909 -0.8724141957406355008 -1.7587534984697996698 0.89381823820397243718 1.1520677241492116583 -6.3435932518970279403;9.1783131174161365351 -2.3895275687313293211 4.5244351231686303905 1.6946206018510396873 -1.3549970891097375958 -0.14808301256786154942 -1.2557061321484817018 -0.37746239496708694494 2.5835040354174165778 1.5208609984976517726 -4.8760721971277627418 -2.1948064692190185632 -0.37615650009927753539 -2.545220796423256715;3.9087830943054533428 1.6342286855679291069 1.3477897774401681463 0.80167793094408335008 1.2131866915661153605 5.6111611892554664749 1.3694819821736654575 0.36087711517916964965 1.7826235154568761399 -2.774110579023008949 -4.0006238262597308974 -0.32448532739782837142 -0.98753337922053630038 -2.4539859099264949016;-2.0949224841151039556 -4.7789268736626766554 -0.85859315061962238058 -1.8976350527455294603 -3.8968034459864631103 -4.3744026423390254266 -3.2206666811806776707 -2.7852894919690287523 -1.3866478322154269787 -1.7612029129408783845 1.8523208303735660962 -1.3311812822786153188 -1.6745835013528231894 0.13583606474848963774;-0.53383448024429880352 1.2919501487460807176 1.7350287399604638061 -2.8458539106356206538 -0.24450965109759748017 -1.9680516568090864471 -3.4348868584198331 -1.4535742217092797457 2.1719190995937900368 3.4095278902576420244 -2.0681382776527295064 -2.1107062312360849177 1.0313485540265894258 0.76922729399162492747;0.84415308659146481851 -0.90995281544958528386 3.0285522669212441293 0.060324701984109010966 0.053185307847138652004 -1.2558724870755719749 0.10672516610088172984 -0.13105064519501055664 0.26642738156546041939 1.4136960621179501807 -1.7307724886376785189 -0.83372750644806092879 0.87286123099750123622 3.0079346906125956629;5.4010431039780106843 1.0032887063095943248 -0.34850430735297727169 -0.47621834879981916888 1.3919983313574999517 0.29293558970176136746 -1.6033737308297593138 -0.7944769052209865734 0.78170639012880127616 -2.4307733747610331676 -0.7639799177819479592 -0.062090744337098394134 -0.24249928352926336528 5.890709869811513677;0.11447223969912412311 -3.447314016194028774 1.1330977648380948786 -0.51308575735144690277 -2.9983551644477701714 -2.1336748621549062044 -3.0418818161710823311 -2.9102519871799055196 1.6451062733273433825 2.110282780224943977 2.5029573996029204075 -2.2084552504072552104 0.057854965816662336231 0.050916976269840985569];

% Layer 2
b2 = -0.67125812297120501793;
LW2_1 = [-0.46916485506990024401 0.098236260199451475028 -0.03144680314003596433 -0.11097564960860845096 0.2098453458895103152 -0.087166660212422281129 -0.081324676259007938617 0.08376590874161908562 0.22577744963484813745 0.12374752772556862901];

% Output 1
y1_step1_ymin = -1;
y1_step1_gain = 0.00083594566353187;
y1_step1_xoffset = 67.5;

% ===== SIMULATION ========

% Dimensions
Q = size(x1,1); % samples

% Input 1
x1 = x1';
xp1 = mapminmax_apply(x1,x1_step1_gain,x1_step1_xoffset,x1_step1_ymin);

% Layer 1
a1 = tansig_apply(repmat(b1,1,Q) + IW1_1*xp1);

% Layer 2
a2 = repmat(b2,1,Q) + LW2_1*a1;

% Output 1
y1 = mapminmax_reverse(a2,y1_step1_gain,y1_step1_xoffset,y1_step1_ymin);
y1 = y1';
end

% ===== MODULE FUNCTIONS ========

% Map Minimum and Maximum Input Processing Function
function y = mapminmax_apply(x,settings_gain,settings_xoffset,settings_ymin)
y = bsxfun(@minus,x,settings_xoffset);
y = bsxfun(@times,y,settings_gain);
y = bsxfun(@plus,y,settings_ymin);
end

% Sigmoid Symmetric Transfer Function
function a = tansig_apply(n)
a = 2 ./ (1 + exp(-2*n)) - 1;
end

% Map Minimum and Maximum Output Reverse-Processing Function
function x = mapminmax_reverse(y,settings_gain,settings_xoffset,settings_ymin)
x = bsxfun(@minus,y,settings_ymin);
x = bsxfun(@rdivide,x,settings_gain);
x = bsxfun(@plus,x,settings_xoffset);
end
